digraph Tree {
node [shape=box] ;
0 [label="Rain, Overcast <= 0.5\ngini = 0.445\nsamples = 14340\nvalue = [9544, 4796]\nclass = yes"] ;
1 [label="Partially cloudy <= 0.5\ngini = 0.474\nsamples = 10354\nvalue = [6351, 4003]\nclass = yes"] ;
0 -> 1 [labeldistance=2.5, labelangle=45, headlabel="True"] ;
3 [label="temp <= 33.25\ngini = 0.494\nsamples = 6765\nvalue = [3755, 3010]\nclass = yes"] ;
1 -> 3 ;
9 [label="Snow <= 0.5\ngini = 0.448\nsamples = 358\nvalue = [121, 237]\nclass = no"] ;
3 -> 9 ;
21 [label="gini = 0.343\nsamples = 246\nvalue = [54, 192]\nclass = no"] ;
9 -> 21 ;
22 [label="gini = 0.481\nsamples = 112\nvalue = [67, 45]\nclass = yes"] ;
9 -> 22 ;
10 [label="Overcast <= 0.5\ngini = 0.491\nsamples = 6407\nvalue = [3634, 2773]\nclass = yes"] ;
3 -> 10 ;
11 [label="temp <= 61.841\ngini = 0.495\nsamples = 5681\nvalue = [3124, 2557]\nclass = yes"] ;
10 -> 11 ;
13 [label="Clear <= 0.5\ngini = 0.472\nsamples = 2028\nvalue = [1252, 776]\nclass = yes"] ;
11 -> 13 ;
27 [label="gini = 0.393\nsamples = 465\nvalue = [340, 125]\nclass = yes"] ;
13 -> 27 ;
28 [label="temp <= 60.35\ngini = 0.486\nsamples = 1563\nvalue = [912, 651]\nclass = yes"] ;
13 -> 28 ;
37 [label="gini = 0.491\nsamples = 1407\nvalue = [800, 607]\nclass = yes"] ;
28 -> 37 ;
38 [label="gini = 0.405\nsamples = 156\nvalue = [112, 44]\nclass = yes"] ;
28 -> 38 ;
14 [label="temp <= 61.891\ngini = 0.5\nsamples = 3653\nvalue = [1872, 1781]\nclass = yes"] ;
11 -> 14 ;
15 [label="gini = 0.0\nsamples = 346\nvalue = [0, 346]\nclass = no"] ;
14 -> 15 ;
16 [label="temp <= 87.05\ngini = 0.491\nsamples = 3307\nvalue = [1872, 1435]\nclass = yes"] ;
14 -> 16 ;
29 [label="temp <= 78.95\ngini = 0.489\nsamples = 3140\nvalue = [1808, 1332]\nclass = yes"] ;
16 -> 29 ;
31 [label="temp <= 66.85\ngini = 0.495\nsamples = 2409\nvalue = [1325, 1084]\nclass = yes"] ;
29 -> 31 ;
33 [label="gini = 0.463\nsamples = 519\nvalue = [330, 189]\nclass = yes"] ;
31 -> 33 ;
34 [label="gini = 0.499\nsamples = 1890\nvalue = [995, 895]\nclass = yes"] ;
31 -> 34 ;
32 [label="gini = 0.448\nsamples = 731\nvalue = [483, 248]\nclass = yes"] ;
29 -> 32 ;
30 [label="gini = 0.473\nsamples = 167\nvalue = [64, 103]\nclass = no"] ;
16 -> 30 ;
12 [label="gini = 0.418\nsamples = 726\nvalue = [510, 216]\nclass = yes"] ;
10 -> 12 ;
4 [label="temp <= 44.25\ngini = 0.4\nsamples = 3589\nvalue = [2596, 993]\nclass = yes"] ;
1 -> 4 ;
5 [label="temp <= 43.25\ngini = 0.5\nsamples = 800\nvalue = [409, 391]\nclass = yes"] ;
4 -> 5 ;
7 [label="temp <= 33.75\ngini = 0.469\nsamples = 608\nvalue = [380, 228]\nclass = yes"] ;
5 -> 7 ;
19 [label="gini = 0.492\nsamples = 211\nvalue = [92, 119]\nclass = no"] ;
7 -> 19 ;
20 [label="gini = 0.398\nsamples = 397\nvalue = [288, 109]\nclass = yes"] ;
7 -> 20 ;
8 [label="temp <= 43.35\ngini = 0.256\nsamples = 192\nvalue = [29, 163]\nclass = no"] ;
5 -> 8 ;
23 [label="gini = 0.064\nsamples = 152\nvalue = [5, 147]\nclass = no"] ;
8 -> 23 ;
24 [label="gini = 0.48\nsamples = 40\nvalue = [24, 16]\nclass = yes"] ;
8 -> 24 ;
6 [label="temp <= 68.55\ngini = 0.339\nsamples = 2789\nvalue = [2187, 602]\nclass = yes"] ;
4 -> 6 ;
17 [label="gini = 0.393\nsamples = 1665\nvalue = [1217, 448]\nclass = yes"] ;
6 -> 17 ;
18 [label="temp <= 88.95\ngini = 0.236\nsamples = 1124\nvalue = [970, 154]\nclass = yes"] ;
6 -> 18 ;
35 [label="gini = 0.226\nsamples = 1104\nvalue = [961, 143]\nclass = yes"] ;
18 -> 35 ;
36 [label="gini = 0.495\nsamples = 20\nvalue = [9, 11]\nclass = no"] ;
18 -> 36 ;
2 [label="temp <= 67.85\ngini = 0.319\nsamples = 3986\nvalue = [3193, 793]\nclass = yes"] ;
0 -> 2 [labeldistance=2.5, labelangle=-45, headlabel="False"] ;
25 [label="gini = 0.36\nsamples = 2499\nvalue = [1911, 588]\nclass = yes"] ;
2 -> 25 ;
26 [label="gini = 0.238\nsamples = 1487\nvalue = [1282, 205]\nclass = yes"] ;
2 -> 26 ;
}